digraph Tree {
node [shape=box, style="filled", color="black"] ;
0 [label="tfidf#Rev <= 1.5\ngini = 0.7776\nsamples = 1290\nvalue = [95, 64, 425, 204, 317, 185]\nclass = Sto", fillcolor="#39e5811c"] ;
1 [label="tfidf#Sum <= 1.5\ngini = 0.7466\nsamples = 964\nvalue = [70, 59, 399, 180, 91, 165]\nclass = Sto", fillcolor="#39e58147"] ;
0 -> 1 [labeldistance=2.5, labelangle=45, headlabel="True"] ;
2 [label="tfidf#O <= 2.5\ngini = 0.6884\nsamples = 663\nvalue = [48, 50, 333, 42, 68, 122]\nclass = Sto", fillcolor="#39e58163"] ;
1 -> 2 ;
3 [label="tfidf#Sto <= 1.5\ngini = 0.6596\nsamples = 594\nvalue = [46, 49, 324, 42, 68, 65]\nclass = Sto", fillcolor="#39e5817c"] ;
2 -> 3 ;
4 [label="(...)", fillcolor="#C0C0C0"] ;
3 -> 4 ;
39 [label="(...)", fillcolor="#C0C0C0"] ;
3 -> 39 ;
66 [label="tfidf#Sto <= 3.5\ngini = 0.2995\nsamples = 69\nvalue = [2, 1, 9, 0, 0, 57]\nclass = O", fillcolor="#e5399dcc"] ;
2 -> 66 ;
67 [label="(...)", fillcolor="#C0C0C0"] ;
66 -> 67 ;
72 [label="(...)", fillcolor="#C0C0C0"] ;
66 -> 72 ;
73 [label="tfidf#Sto <= 2.5\ngini = 0.7092\nsamples = 301\nvalue = [22, 9, 66, 138, 23, 43]\nclass = WS", fillcolor="#399de54e"] ;
1 -> 73 ;
74 [label="tfidf#Char <= 3.5\ngini = 0.6569\nsamples = 223\nvalue = [20, 8, 20, 121, 20, 34]\nclass = WS", fillcolor="#399de575"] ;
73 -> 74 ;
75 [label="(...)", fillcolor="#C0C0C0"] ;
74 -> 75 ;
96 [label="(...)", fillcolor="#C0C0C0"] ;
74 -> 96 ;
97 [label="tfidf#O <= 2.5\ngini = 0.5891\nsamples = 78\nvalue = [2, 1, 46, 17, 3, 9]\nclass = Sto", fillcolor="#39e58179"] ;
73 -> 97 ;
98 [label="(...)", fillcolor="#C0C0C0"] ;
97 -> 98 ;
103 [label="(...)", fillcolor="#C0C0C0"] ;
97 -> 103 ;
104 [label="tfidf#Sto <= 2.5\ngini = 0.4977\nsamples = 326\nvalue = [25, 5, 26, 24, 226, 20]\nclass = Char", fillcolor="#8139e5aa"] ;
0 -> 104 [labeldistance=2.5, labelangle=-45, headlabel="False"] ;
105 [label="tfidf#O <= 1.5\ngini = 0.3871\nsamples = 284\nvalue = [19, 3, 7, 19, 220, 16]\nclass = Char", fillcolor="#8139e5c1"] ;
104 -> 105 ;
106 [label="tfidf#Sum <= 1.5\ngini = 0.2733\nsamples = 232\nvalue = [12, 3, 5, 10, 197, 5]\nclass = Char", fillcolor="#8139e5d6"] ;
105 -> 106 ;
107 [label="(...)", fillcolor="#C0C0C0"] ;
106 -> 107 ;
116 [label="(...)", fillcolor="#C0C0C0"] ;
106 -> 116 ;
121 [label="tfidf#Rev <= 6.5\ngini = 0.7101\nsamples = 52\nvalue = [7, 0, 2, 9, 23, 11]\nclass = Char", fillcolor="#8139e54b"] ;
105 -> 121 ;
122 [label="(...)", fillcolor="#C0C0C0"] ;
121 -> 122 ;
125 [label="(...)", fillcolor="#C0C0C0"] ;
121 -> 125 ;
126 [label="tfidf#Char <= 3.5\ngini = 0.729\nsamples = 42\nvalue = [6, 2, 19, 5, 6, 4]\nclass = Sto", fillcolor="#39e5815c"] ;
104 -> 126 ;
127 [label="gini = 0.5243\nsamples = 24\nvalue = [1, 0, 16, 3, 2, 2]\nclass = Sto", fillcolor="#39e5819e"] ;
126 -> 127 ;
128 [label="gini = 0.8086\nsamples = 18\nvalue = [5, 2, 3, 2, 4, 2]\nclass = Rev", fillcolor="#e5813912"] ;
126 -> 128 ;
}