digraph Tree {
node [shape=box, style="filled", color="black"] ;
0 [label="tfidf#Rev <= 2.5\ngini = 0.7731\nsamples = 1147\nvalue = [97, 54, 415, 181, 224, 176]\nclass = Sto", fillcolor="#39e58135"] ;
1 [label="tfidf#Sum <= 2.5\ngini = 0.7435\nsamples = 960\nvalue = [81, 51, 404, 170, 89, 165]\nclass = Sto", fillcolor="#39e5814c"] ;
0 -> 1 [labeldistance=2.5, labelangle=45, headlabel="True"] ;
2 [label="tfidf#Sto <= 1.5\ngini = 0.7106\nsamples = 807\nvalue = [73, 47, 384, 78, 80, 145]\nclass = Sto", fillcolor="#39e5815c"] ;
1 -> 2 ;
3 [label="tfidf#O <= 1.5\ngini = 0.8058\nsamples = 441\nvalue = [53, 34, 129, 68, 68, 89]\nclass = Sto", fillcolor="#39e5811d"] ;
2 -> 3 ;
4 [label="(...)", fillcolor="#C0C0C0"] ;
3 -> 4 ;
41 [label="(...)", fillcolor="#C0C0C0"] ;
3 -> 41 ;
52 [label="tfidf#O <= 2.5\ngini = 0.4851\nsamples = 366\nvalue = [20, 13, 255, 10, 12, 56]\nclass = Sto", fillcolor="#39e581a4"] ;
2 -> 52 ;
53 [label="(...)", fillcolor="#C0C0C0"] ;
52 -> 53 ;
80 [label="(...)", fillcolor="#C0C0C0"] ;
52 -> 80 ;
87 [label="tfidf#O <= 3.5\ngini = 0.5974\nsamples = 153\nvalue = [8, 4, 20, 92, 9, 20]\nclass = WS", fillcolor="#399de58a"] ;
1 -> 87 ;
88 [label="tfidf#Sto <= 3.5\ngini = 0.541\nsamples = 136\nvalue = [8, 4, 19, 89, 8, 8]\nclass = WS", fillcolor="#399de599"] ;
87 -> 88 ;
89 [label="(...)", fillcolor="#C0C0C0"] ;
88 -> 89 ;
102 [label="(...)", fillcolor="#C0C0C0"] ;
88 -> 102 ;
103 [label="gini = 0.4637\nsamples = 17\nvalue = [0, 0, 1, 3, 1, 12]\nclass = O", fillcolor="#e5399da4"] ;
87 -> 103 ;
104 [label="length <= 30.5\ngini = 0.4609\nsamples = 187\nvalue = [16, 3, 11, 11, 135, 11]\nclass = Char", fillcolor="#8139e5b1"] ;
0 -> 104 [labeldistance=2.5, labelangle=-45, headlabel="False"] ;
105 [label="tfidf#Rev <= 3.5\ngini = 0.2279\nsamples = 113\nvalue = [3, 0, 6, 3, 99, 2]\nclass = Char", fillcolor="#8139e5de"] ;
104 -> 105 ;
106 [label="sentiment <= 0.139\ngini = 0.4723\nsamples = 34\nvalue = [2, 0, 5, 2, 24, 1]\nclass = Char", fillcolor="#8139e5a7"] ;
105 -> 106 ;
107 [label="(...)", fillcolor="#C0C0C0"] ;
106 -> 107 ;
108 [label="(...)", fillcolor="#C0C0C0"] ;
106 -> 108 ;
109 [label="tfidf#Sum <= 1.5\ngini = 0.0981\nsamples = 79\nvalue = [1, 0, 1, 1, 75, 1]\nclass = Char", fillcolor="#8139e5f2"] ;
105 -> 109 ;
110 [label="(...)", fillcolor="#C0C0C0"] ;
109 -> 110 ;
113 [label="(...)", fillcolor="#C0C0C0"] ;
109 -> 113 ;
114 [label="tfidf#Rev <= 6.5\ngini = 0.6998\nsamples = 74\nvalue = [13, 3, 5, 8, 36, 9]\nclass = Char", fillcolor="#8139e560"] ;
104 -> 114 ;
115 [label="tfidf#Char <= 5.5\ngini = 0.7859\nsamples = 51\nvalue = [11, 3, 5, 8, 17, 7]\nclass = Char", fillcolor="#8139e526"] ;
114 -> 115 ;
116 [label="(...)", fillcolor="#C0C0C0"] ;
115 -> 116 ;
119 [label="(...)", fillcolor="#C0C0C0"] ;
115 -> 119 ;
120 [label="gini = 0.3025\nsamples = 23\nvalue = [2, 0, 0, 0, 19, 2]\nclass = Char", fillcolor="#8139e5ce"] ;
114 -> 120 ;
}