digraph Tree {
node [shape=box, style="filled", color="black"] ;
0 [label="tfidf#Rev <= 2.5\ngini = 0.7731\nsamples = 1147\nvalue = [97, 54, 415, 181, 224, 176]\nclass = Sto", fillcolor="#39e58135"] ;
1 [label="tfidf#Sum <= 2.5\ngini = 0.7435\nsamples = 960\nvalue = [81, 51, 404, 170, 89, 165]\nclass = Sto", fillcolor="#39e5814c"] ;
0 -> 1 [labeldistance=2.5, labelangle=45, headlabel="True"] ;
2 [label="tfidf#Sto <= 1.5\ngini = 0.7106\nsamples = 807\nvalue = [73, 47, 384, 78, 80, 145]\nclass = Sto", fillcolor="#39e5815c"] ;
1 -> 2 ;
3 [label="tfidf#O <= 1.5\ngini = 0.8058\nsamples = 441\nvalue = [53, 34, 129, 68, 68, 89]\nclass = Sto", fillcolor="#39e5811d"] ;
2 -> 3 ;
4 [label="(...)", fillcolor="#C0C0C0"] ;
3 -> 4 ;
39 [label="(...)", fillcolor="#C0C0C0"] ;
3 -> 39 ;
52 [label="tfidf#O <= 2.5\ngini = 0.4851\nsamples = 366\nvalue = [20, 13, 255, 10, 12, 56]\nclass = Sto", fillcolor="#39e581a4"] ;
2 -> 52 ;
53 [label="(...)", fillcolor="#C0C0C0"] ;
52 -> 53 ;
82 [label="(...)", fillcolor="#C0C0C0"] ;
52 -> 82 ;
89 [label="vs_Sto <= 0.425\ngini = 0.5974\nsamples = 153\nvalue = [8, 4, 20, 92, 9, 20]\nclass = WS", fillcolor="#399de58a"] ;
1 -> 89 ;
90 [label="tfidf#O <= 1.5\ngini = 0.3507\nsamples = 85\nvalue = [1, 4, 3, 68, 5, 4]\nclass = WS", fillcolor="#399de5c9"] ;
89 -> 90 ;
91 [label="(...)", fillcolor="#C0C0C0"] ;
90 -> 91 ;
96 [label="(...)", fillcolor="#C0C0C0"] ;
90 -> 96 ;
99 [label="tfidf#Sum <= 5.5\ngini = 0.7435\nsamples = 68\nvalue = [7, 0, 17, 24, 4, 16]\nclass = WS", fillcolor="#399de523"] ;
89 -> 99 ;
100 [label="(...)", fillcolor="#C0C0C0"] ;
99 -> 100 ;
107 [label="(...)", fillcolor="#C0C0C0"] ;
99 -> 107 ;
108 [label="vs_Sto <= 0.4239\ngini = 0.4609\nsamples = 187\nvalue = [16, 3, 11, 11, 135, 11]\nclass = Char", fillcolor="#8139e5b1"] ;
0 -> 108 [labeldistance=2.5, labelangle=-45, headlabel="False"] ;
109 [label="vs_O <= 0.3909\ngini = 0.2054\nsamples = 136\nvalue = [5, 1, 3, 2, 121, 4]\nclass = Char", fillcolor="#8139e5e2"] ;
108 -> 109 ;
110 [label="vs_Rev <= 0.3565\ngini = 0.0745\nsamples = 104\nvalue = [1, 0, 3, 0, 100, 0]\nclass = Char", fillcolor="#8139e5f5"] ;
109 -> 110 ;
111 [label="(...)", fillcolor="#C0C0C0"] ;
110 -> 111 ;
112 [label="(...)", fillcolor="#C0C0C0"] ;
110 -> 112 ;
115 [label="tfidf#Rev <= 5.5\ngini = 0.5332\nsamples = 32\nvalue = [4, 1, 0, 2, 21, 4]\nclass = Char", fillcolor="#8139e59b"] ;
109 -> 115 ;
116 [label="(...)", fillcolor="#C0C0C0"] ;
115 -> 116 ;
117 [label="(...)", fillcolor="#C0C0C0"] ;
115 -> 117 ;
118 [label="tfidf#O <= 4.5\ngini = 0.802\nsamples = 51\nvalue = [11, 2, 8, 9, 14, 7]\nclass = Char", fillcolor="#8139e513"] ;
108 -> 118 ;
119 [label="tfidf#Char <= 5.5\ngini = 0.759\nsamples = 38\nvalue = [11, 1, 8, 9, 9, 0]\nclass = Rev", fillcolor="#e5813912"] ;
118 -> 119 ;
120 [label="(...)", fillcolor="#C0C0C0"] ;
119 -> 120 ;
121 [label="(...)", fillcolor="#C0C0C0"] ;
119 -> 121 ;
122 [label="gini = 0.5562\nsamples = 13\nvalue = [0, 1, 0, 0, 5, 7]\nclass = O", fillcolor="#e5399d40"] ;
118 -> 122 ;
}