digraph Tree {
node [shape=box, style="filled", color="black"] ;
0 [label="tfidf#Rev <= 1.5\ngini = 0.7813\nsamples = 1217\nvalue = [98, 56, 397, 207, 281, 178]\nclass = Sto", fillcolor="#39e58120"] ;
1 [label="tfidf#Sum <= 1.5\ngini = 0.7465\nsamples = 893\nvalue = [71, 51, 364, 181, 70, 156]\nclass = Sto", fillcolor="#39e58142"] ;
0 -> 1 [labeldistance=2.5, labelangle=45, headlabel="True"] ;
2 [label="tfidf#O <= 1.5\ngini = 0.6853\nsamples = 604\nvalue = [44, 44, 307, 48, 54, 107]\nclass = Sto", fillcolor="#39e58167"] ;
1 -> 2 ;
3 [label="tfidf#Sto <= 0.5\ngini = 0.6239\nsamples = 449\nvalue = [36, 37, 262, 39, 47, 28]\nclass = Sto", fillcolor="#39e58188"] ;
2 -> 3 ;
4 [label="(...)", fillcolor="#C0C0C0"] ;
3 -> 4 ;
21 [label="(...)", fillcolor="#C0C0C0"] ;
3 -> 21 ;
48 [label="tfidf#Sto <= 2.5\ngini = 0.6458\nsamples = 155\nvalue = [8, 7, 45, 9, 7, 79]\nclass = O", fillcolor="#e5399d4f"] ;
2 -> 48 ;
49 [label="(...)", fillcolor="#C0C0C0"] ;
48 -> 49 ;
62 [label="(...)", fillcolor="#C0C0C0"] ;
48 -> 62 ;
67 [label="tfidf#O <= 3.5\ngini = 0.7082\nsamples = 289\nvalue = [27, 7, 57, 133, 16, 49]\nclass = WS", fillcolor="#399de554"] ;
1 -> 67 ;
68 [label="tfidf#Char <= 4.5\ngini = 0.674\nsamples = 246\nvalue = [25, 6, 55, 124, 15, 21]\nclass = WS", fillcolor="#399de55c"] ;
67 -> 68 ;
69 [label="(...)", fillcolor="#C0C0C0"] ;
68 -> 69 ;
94 [label="(...)", fillcolor="#C0C0C0"] ;
68 -> 94 ;
95 [label="tfidf#Sum <= 3.5\ngini = 0.5268\nsamples = 43\nvalue = [2, 1, 2, 9, 1, 28]\nclass = O", fillcolor="#e5399d8e"] ;
67 -> 95 ;
96 [label="(...)", fillcolor="#C0C0C0"] ;
95 -> 96 ;
99 [label="(...)", fillcolor="#C0C0C0"] ;
95 -> 99 ;
100 [label="vs_Sto <= 0.4217\ngini = 0.5473\nsamples = 324\nvalue = [27, 5, 33, 26, 211, 22]\nclass = Char", fillcolor="#8139e59c"] ;
0 -> 100 [labeldistance=2.5, labelangle=-45, headlabel="False"] ;
101 [label="vs_Sum <= 0.3977\ngini = 0.3184\nsamples = 229\nvalue = [11, 3, 6, 13, 188, 8]\nclass = Char", fillcolor="#8139e5cf"] ;
100 -> 101 ;
102 [label="vs_Sto <= 0.3276\ngini = 0.1753\nsamples = 171\nvalue = [7, 1, 6, 0, 155, 2]\nclass = Char", fillcolor="#8139e5e6"] ;
101 -> 102 ;
103 [label="(...)", fillcolor="#C0C0C0"] ;
102 -> 103 ;
110 [label="(...)", fillcolor="#C0C0C0"] ;
102 -> 110 ;
115 [label="vs_Rev <= 0.4424\ngini = 0.6094\nsamples = 58\nvalue = [4, 2, 0, 13, 33, 6]\nclass = Char", fillcolor="#8139e571"] ;
101 -> 115 ;
116 [label="(...)", fillcolor="#C0C0C0"] ;
115 -> 116 ;
117 [label="(...)", fillcolor="#C0C0C0"] ;
115 -> 117 ;
122 [label="vs_Char <= 0.5164\ngini = 0.7914\nsamples = 95\nvalue = [16, 2, 27, 13, 23, 14]\nclass = Sto", fillcolor="#39e5810e"] ;
100 -> 122 ;
123 [label="tfidf#Sto <= 2.5\ngini = 0.6803\nsamples = 55\nvalue = [2, 1, 26, 9, 14, 3]\nclass = Sto", fillcolor="#39e5814b"] ;
122 -> 123 ;
124 [label="(...)", fillcolor="#C0C0C0"] ;
123 -> 124 ;
125 [label="(...)", fillcolor="#C0C0C0"] ;
123 -> 125 ;
128 [label="vs_O <= 0.5716\ngini = 0.74\nsamples = 40\nvalue = [14, 1, 1, 4, 9, 11]\nclass = Rev", fillcolor="#e581391a"] ;
122 -> 128 ;
129 [label="(...)", fillcolor="#C0C0C0"] ;
128 -> 129 ;
132 [label="(...)", fillcolor="#C0C0C0"] ;
128 -> 132 ;
}