digraph Tree {
node [shape=box, style="filled", color="black"] ;
0 [label="tfidf#Rev <= 1.5\ngini = 0.7776\nsamples = 1290\nvalue = [95, 64, 425, 204, 317, 185]\nclass = Sto", fillcolor="#39e5811c"] ;
1 [label="tfidf#Sum <= 1.5\ngini = 0.7466\nsamples = 964\nvalue = [70, 59, 399, 180, 91, 165]\nclass = Sto", fillcolor="#39e58147"] ;
0 -> 1 [labeldistance=2.5, labelangle=45, headlabel="True"] ;
2 [label="tfidf#O <= 2.5\ngini = 0.6884\nsamples = 663\nvalue = [48, 50, 333, 42, 68, 122]\nclass = Sto", fillcolor="#39e58163"] ;
1 -> 2 ;
3 [label="tfidf#Sto <= 1.5\ngini = 0.6596\nsamples = 594\nvalue = [46, 49, 324, 42, 68, 65]\nclass = Sto", fillcolor="#39e5817c"] ;
2 -> 3 ;
4 [label="(...)", fillcolor="#C0C0C0"] ;
3 -> 4 ;
43 [label="(...)", fillcolor="#C0C0C0"] ;
3 -> 43 ;
70 [label="vs_Sto <= 0.4868\ngini = 0.2995\nsamples = 69\nvalue = [2, 1, 9, 0, 0, 57]\nclass = O", fillcolor="#e5399dcc"] ;
2 -> 70 ;
71 [label="(...)", fillcolor="#C0C0C0"] ;
70 -> 71 ;
74 [label="(...)", fillcolor="#C0C0C0"] ;
70 -> 74 ;
75 [label="tfidf#Sto <= 2.5\ngini = 0.7092\nsamples = 301\nvalue = [22, 9, 66, 138, 23, 43]\nclass = WS", fillcolor="#399de54e"] ;
1 -> 75 ;
76 [label="tfidf#Char <= 3.5\ngini = 0.6569\nsamples = 223\nvalue = [20, 8, 20, 121, 20, 34]\nclass = WS", fillcolor="#399de575"] ;
75 -> 76 ;
77 [label="(...)", fillcolor="#C0C0C0"] ;
76 -> 77 ;
102 [label="(...)", fillcolor="#C0C0C0"] ;
76 -> 102 ;
103 [label="vs_Sum <= 0.5256\ngini = 0.5891\nsamples = 78\nvalue = [2, 1, 46, 17, 3, 9]\nclass = Sto", fillcolor="#39e58179"] ;
75 -> 103 ;
104 [label="(...)", fillcolor="#C0C0C0"] ;
103 -> 104 ;
111 [label="(...)", fillcolor="#C0C0C0"] ;
103 -> 111 ;
112 [label="vs_Sto <= 0.381\ngini = 0.4977\nsamples = 326\nvalue = [25, 5, 26, 24, 226, 20]\nclass = Char", fillcolor="#8139e5aa"] ;
0 -> 112 [labeldistance=2.5, labelangle=-45, headlabel="False"] ;
113 [label="vs_Sum <= 0.4347\ngini = 0.2097\nsamples = 213\nvalue = [8, 2, 4, 6, 189, 4]\nclass = Char", fillcolor="#8139e5e1"] ;
112 -> 113 ;
114 [label="tfidf#Char <= 2.5\ngini = 0.1528\nsamples = 199\nvalue = [5, 1, 4, 3, 183, 3]\nclass = Char", fillcolor="#8139e5ea"] ;
113 -> 114 ;
115 [label="(...)", fillcolor="#C0C0C0"] ;
114 -> 115 ;
124 [label="(...)", fillcolor="#C0C0C0"] ;
114 -> 124 ;
127 [label="gini = 0.7143\nsamples = 14\nvalue = [3, 1, 0, 3, 6, 1]\nclass = Char", fillcolor="#8139e546"] ;
113 -> 127 ;
128 [label="tfidf#Rev <= 5.5\ngini = 0.7861\nsamples = 113\nvalue = [17, 3, 22, 18, 37, 16]\nclass = Char", fillcolor="#8139e52a"] ;
112 -> 128 ;
129 [label="tfidf#Char <= 5.5\ngini = 0.8064\nsamples = 87\nvalue = [15, 3, 22, 17, 17, 13]\nclass = Sto", fillcolor="#39e58112"] ;
128 -> 129 ;
130 [label="(...)", fillcolor="#C0C0C0"] ;
129 -> 130 ;
139 [label="(...)", fillcolor="#C0C0C0"] ;
129 -> 139 ;
140 [label="vs_Char <= 0.5084\ngini = 0.3876\nsamples = 26\nvalue = [2, 0, 0, 1, 20, 3]\nclass = Char", fillcolor="#8139e5bc"] ;
128 -> 140 ;
141 [label="(...)", fillcolor="#C0C0C0"] ;
140 -> 141 ;
142 [label="(...)", fillcolor="#C0C0C0"] ;
140 -> 142 ;
}