digraph Tree {
node [shape=box, style="filled", color="black"] ;
0 [label="tfidf#Rev <= 1.5\ngini = 0.7821\nsamples = 1218\nvalue = [102, 54, 384, 201, 303, 174]\nclass = Sto", fillcolor="#39e58117"] ;
1 [label="tfidf#O <= 2.5\ngini = 0.7549\nsamples = 892\nvalue = [70, 49, 352, 179, 86, 156]\nclass = Sto", fillcolor="#39e5813e"] ;
0 -> 1 [labeldistance=2.5, labelangle=45, headlabel="True"] ;
2 [label="tfidf#Sto <= 1.5\ngini = 0.7295\nsamples = 757\nvalue = [62, 46, 332, 165, 82, 70]\nclass = Sto", fillcolor="#39e58148"] ;
1 -> 2 ;
3 [label="tfidf#Sum <= 1.5\ngini = 0.7958\nsamples = 461\nvalue = [51, 35, 125, 128, 69, 53]\nclass = WS", fillcolor="#399de502"] ;
2 -> 3 ;
4 [label="(...)", fillcolor="#C0C0C0"] ;
3 -> 4 ;
41 [label="(...)", fillcolor="#C0C0C0"] ;
3 -> 41 ;
52 [label="tfidf#Sum <= 3.5\ngini = 0.4873\nsamples = 296\nvalue = [11, 11, 207, 37, 13, 17]\nclass = Sto", fillcolor="#39e581a7"] ;
2 -> 52 ;
53 [label="(...)", fillcolor="#C0C0C0"] ;
52 -> 53 ;
78 [label="(...)", fillcolor="#C0C0C0"] ;
52 -> 78 ;
79 [label="tfidf#Sto <= 4.5\ngini = 0.5566\nsamples = 135\nvalue = [8, 3, 20, 14, 4, 86]\nclass = O", fillcolor="#e5399d92"] ;
1 -> 79 ;
80 [label="tfidf#Sum <= 3.5\ngini = 0.4995\nsamples = 122\nvalue = [8, 2, 11, 14, 3, 84]\nclass = O", fillcolor="#e5399da5"] ;
79 -> 80 ;
81 [label="(...)", fillcolor="#C0C0C0"] ;
80 -> 81 ;
92 [label="(...)", fillcolor="#C0C0C0"] ;
80 -> 92 ;
93 [label="gini = 0.4852\nsamples = 13\nvalue = [0, 1, 9, 0, 1, 2]\nclass = Sto", fillcolor="#39e581a2"] ;
79 -> 93 ;
94 [label="vs_Sto <= 0.3834\ngini = 0.5298\nsamples = 326\nvalue = [32, 5, 32, 22, 217, 18]\nclass = Char", fillcolor="#8139e5a0"] ;
0 -> 94 [labeldistance=2.5, labelangle=-45, headlabel="False"] ;
95 [label="tfidf#Sum <= 2.5\ngini = 0.2308\nsamples = 208\nvalue = [8, 4, 4, 7, 182, 3]\nclass = Char", fillcolor="#8139e5de"] ;
94 -> 95 ;
96 [label="vs_Sum <= 0.4315\ngini = 0.1742\nsamples = 195\nvalue = [6, 3, 3, 3, 177, 3]\nclass = Char", fillcolor="#8139e5e7"] ;
95 -> 96 ;
97 [label="(...)", fillcolor="#C0C0C0"] ;
96 -> 97 ;
108 [label="(...)", fillcolor="#C0C0C0"] ;
96 -> 108 ;
109 [label="gini = 0.7219\nsamples = 13\nvalue = [2, 1, 1, 4, 5, 0]\nclass = Char", fillcolor="#8139e51c"] ;
95 -> 109 ;
110 [label="tfidf#Sto <= 2.5\ngini = 0.782\nsamples = 118\nvalue = [24, 1, 28, 15, 35, 15]\nclass = Char", fillcolor="#8139e514"] ;
94 -> 110 ;
111 [label="tfidf#Rev <= 4.5\ngini = 0.7306\nsamples = 76\nvalue = [17, 0, 4, 11, 31, 13]\nclass = Char", fillcolor="#8139e53d"] ;
110 -> 111 ;
112 [label="(...)", fillcolor="#C0C0C0"] ;
111 -> 112 ;
117 [label="(...)", fillcolor="#C0C0C0"] ;
111 -> 117 ;
118 [label="vs_Char <= 0.5196\ngini = 0.6247\nsamples = 42\nvalue = [7, 1, 24, 4, 4, 2]\nclass = Sto", fillcolor="#39e5817c"] ;
110 -> 118 ;
119 [label="(...)", fillcolor="#C0C0C0"] ;
118 -> 119 ;
122 [label="(...)", fillcolor="#C0C0C0"] ;
118 -> 122 ;
}